100 10
0 -0.024683297 0.016180318 -0.03647545 0.019598264 -0.007196553 -0.0022312216 -0.027928371 0.015877087 -0.0041878633 -0.018742152
1 0.024566676 -0.031162722 -0.013517696 -0.04210227 4.13768e-05 0.03342553 0.01852056 0.046575937 -0.0035215802 -0.042721447
2 0.027977657 -0.027751923 -0.005294431 0.019067142 0.0016853921 0.011614211 0.0093923025 -0.044686317 0.02387787 0.0038974397
3 -0.030049175 0.021525014 0.033679944 -0.039850693 -0.0384748 0.009691983 0.026903305 0.0008423999 -0.0041947365 0.0444155
4 -0.012160946 -0.03352703 -0.01376725 0.022971053 0.002177555 0.042805377 0.026197929 -0.043103077 0.002382893 0.045405414
5 -0.03084153 -0.0032962188 0.011317473 0.03886621 -0.021151537 -0.04324327 0.019869398 -0.049647283 0.03500781 0.031189699
6 -0.045875814 -0.018443972 0.03953806 0.00018874928 -0.0107114315 0.04718904 0.046780143 0.0057571754 0.015642535 -0.045690864
7 -0.03507489 -0.011392884 -0.024115955 -0.04210394 0.023526464 0.045747403 -0.01451705 -0.009608965 -0.04427711 -0.005682625
8 0.023746539 -0.0066612437 -0.041094758 0.0048098974 -0.025684822 0.047434147 -0.017715503 0.017206993 0.039820027 0.025759038
9 -0.02583754 0.019926492 0.026817154 -0.03844721 -0.024637138 0.032739032 -0.027830034 -0.018459361 -0.037149947 -0.020184351
10 0.014727604 -0.038983792 0.017210629 0.009319156 0.012801055 -0.0046282895 0.04086292 0.036590125 -0.044682633 -0.010876767
11 0.010862432 0.028896172 -0.022488236 0.047572713 -0.008171998 -0.02902167 -0.012236159 -0.040938247 -0.040163178 0.045263756
12 -0.034133635 -0.035053335 -0.02736413 0.03393856 0.04622994 0.022160027 -0.031198341 0.029879939 0.02643967 -0.03264885
13 -0.036289044 0.0064637586 0.031237844 0.019080143 -0.019844724 -0.00718417 -0.027135372 -0.019229406 -0.03970454 0.014774162
14 -0.037576757 0.029215764 0.005841978 0.0043328926 -0.00048241764 -0.03486014 0.03818552 -0.03492992 -0.01858645 -0.009002864
15 0.0066009983 -0.042925622 0.008515798 -0.016581804 -0.010224242 -0.024222791 0.036618512 -0.0033612773 -0.0041594803 0.046868596
16 -0.04684308 -0.014600057 -0.04949831 -0.031432047 -0.046329465 0.0061820038 -0.046604194 -0.0054138824 -0.0138833895 0.032079432
17 -0.02563088 -0.04394567 0.046678428 0.019858148 0.035723154 0.04355919 -0.0029847212 0.0486958 0.04147878 0.031728122
18 0.048488524 0.031374637 0.0053103454 -0.026471168 0.009939134 -0.0404948 0.040930163 0.024349574 0.035195854 0.0016939528
19 -0.012923859 -0.047952008 0.013028029 0.023956064 0.020294506 0.04497141 0.038198967 0.030097153 -0.039589852 0.023827698
20 -0.030767573 0.0036010034 0.045739714 0.047316168 -0.035653718 0.01977617 0.041104708 0.004935026 0.014526848 0.010246914
21 -0.001994241 0.04670282 -0.0052347556 0.00060464814 -0.0041424334 0.0003237836 -0.032089878 -0.013707913 -0.04990847 -0.033693492
22 0.03513198 0.032452624 0.02189188 -0.04053585 -0.042338815 -0.04988549 0.031014401 0.038434353 0.019344535 0.027435992
23 -0.023627311 -0.042623904 0.022025313 0.028670501 0.046075497 0.008667957 0.03560934 -0.007444583 -0.015644275 -0.03157109
24 0.041123483 -0.027435929 -0.007772904 -0.0026853867 -0.0136114545 0.0011509284 -0.030265464 -0.048613798 0.010675572 0.030479375
25 0.024447132 -0.045866605 -0.004129879 0.022641513 -0.044193048 -0.03368615 0.036432486 0.021886367 -0.025267977 0.024346951
26 0.04827067 -0.046412 -0.02794059 -0.01594577 -0.048408408 -0.0335946 0.024579119 0.007834148 -0.03549826 -0.009793438
27 0.043119345 -0.021948118 0.0023553967 -0.023170246 0.04880247 -0.04744025 0.02867179 -0.019931693 -0.03139463 0.010934226
28 0.02982593 0.02797458 0.043430794 0.046756055 0.026712958 -0.0029724836 0.036794495 0.041488204 0.0019671135 0.046646994
29 -0.049884677 0.010046966 0.046739828 0.020296965 0.028523829 -0.04373709 -0.031500973 -0.013787311 -0.011916947 0.011620693
30 -0.021563172 -0.024821395 0.035038795 0.025711868 -0.013640624 0.020016674 0.0083342865 0.046512093 0.011668503 0.0031338632
31 0.008795522 -0.018693626 0.007899035 0.032869656 0.032926742 -0.0034751222 -0.027092976 0.022926789 0.018419947 -0.039638847
32 0.04575466 0.031276133 -0.021415645 0.03456114 -0.015832476 0.01745614 0.039776597 0.043663654 0.005140163 0.03045861
33 0.044747297 -0.04505701 0.048579734 0.031841975 -0.036856465 -0.039749194 -0.026743932 0.0496555 -0.012887359 -0.037655264
34 -0.033851076 -0.01012627 0.019173112 0.011215769 -0.04261232 0.026972603 -0.021426214 -0.018223573 0.016010117 -0.005561404
35 -0.018230397 0.010770015 0.04375037 0.0074344575 0.017755661 -0.0199305 -0.038936425 0.043316636 0.025558133 -0.044350684
36 0.049711008 0.014342058 0.039902065 -0.022389596 0.03114352 -0.027158726 0.023896676 0.0018640868 0.04172359 0.033722285
37 -0.008232288 0.009677023 0.005647205 -0.037527524 0.0077948496 0.017257307 -0.021809727 -0.037554752 -0.048128784 -0.016953059
38 0.012111254 0.04395214 0.03903159 -0.019672 -0.014565904 -0.023448456 -0.026949024 -0.027932703 0.039098237 0.026170623
39 -0.033766173 0.0011308081 -0.018123545 0.026256766 0.04316518 0.03403135 0.004240025 -0.03608331 0.03888372 -0.012722056
40 -0.022621734 0.015492056 -0.0474914 -0.025700837 -0.037721105 -0.02520119 0.011731517 0.01266611 0.024227854 -0.02502857
41 0.043867055 -0.0021118931 -0.006378673 -0.0320068 -0.04579532 0.028348718 -0.010980196 0.04157846 -0.04334672 0.0163838
42 -0.049251486 -0.025551075 -0.013637017 0.029181842 0.039876428 -0.015474774 0.0039292164 0.04519886 0.033968348 0.008289643
43 -0.008663733 0.048841115 0.04854368 0.025674302 -0.03182304 -0.02012301 0.018483486 0.0023273937 -0.008495998 -0.0027345233
44 -0.014081664 0.001273036 0.047798958 0.046706323 0.004137855 -0.0368851 0.045888428 -0.018701471 0.049752448 -0.0349812
45 -0.0024957433 -0.023215199 -0.02513799 0.03606585 0.02429596 0.0020386204 -0.047814187 0.024791148 -0.010162819 0.00703609
46 -0.007142395 0.0037344806 -0.0025256388 -0.0072003976 -0.030300308 -0.0032360926 -0.0049939826 -0.0036572628 0.046556707 0.049942326
47 0.023945037 0.023505282 0.012336146 0.04304063 -0.04076905 -0.00058354065 0.040543076 -0.020303417 0.014080647 -0.037315555
48 0.027411211 0.0008412376 0.013120372 -0.006248273 -0.026226688 0.021379884 -0.009353571 0.03646368 0.010551281 -0.041758925
49 -0.014956463 0.0039873347 -0.029620642 0.04830918 0.04280195 -0.047662165 -0.016916908 -0.04471761 0.03826851 -0.018672138
50 0.03794306 0.036020305 -0.021101398 0.0121558085 0.039998535 0.029547546 -0.003336627 0.0027091987 0.03939831 -0.0011818521
51 -0.049910314 -0.005521469 -0.042947825 -0.033814088 -0.0031316355 0.0060503297 0.034723606 0.0059730634 0.03463037 0.033246968
52 -0.033357173 0.0042523853 0.00032713264 0.02289858 -0.021647139 0.027157355 -0.003028065 0.021474157 -0.027038027 0.028169941
53 -0.045089334 0.049186226 0.004589498 -0.013465084 0.035326157 -9.664148e-05 -0.046877313 -0.042399794 0.0318051 0.0054589324
54 -0.033683926 -0.010184515 -0.0018019453 -0.02080149 0.017585192 -0.0129465535 0.038019005 0.005936194 -0.024116838 0.011318415
55 0.016982619 -0.04869544 -0.029816795 0.028377641 -0.012709748 0.018220153 0.018617805 -0.034858853 0.022972051 -0.026268518
56 -0.015742373 -0.020435173 -0.013864249 0.03165188 0.03934643 0.041113492 -0.003315419 0.044534985 -0.0246674 0.049235445
57 0.035484318 -0.023306703 -0.046362396 -0.0030736215 -0.039059363 -0.033877403 0.02740923 -0.030265678 -0.03840398 0.047416013
58 0.030876603 -0.002942372 0.008514602 0.04191092 -0.04347976 0.009729169 -0.0016242862 0.00076021627 0.027751733 -0.03048622
59 -0.017469566 0.044097085 -0.0039981715 -0.024213225 0.02412616 -0.026356215 -0.04244506 0.046151143 -0.045184013 -0.019773072
60 0.009407885 0.003733147 -0.0057407096 0.0071103945 -0.02564925 -0.01711917 -0.035817195 -0.03203084 0.0006551333 -0.0021776855
61 0.045696665 -0.034764092 0.04977646 0.031457137 -0.018941164 0.037180882 0.038359452 0.014910016 -0.02184006 -0.005712539
62 0.043829713 0.0067138 -0.035399467 -0.013327956 -0.011886347 -0.028653925 -0.021625388 -0.013062663 -0.04276217 -0.020353545
63 -0.038580395 0.021466669 0.01443034 -0.048181128 0.044783395 0.012581389 -0.005905561 -0.012249351 0.0020764694 -0.03840677
64 -0.041736044 -0.04900253 0.016891506 0.012317579 -0.039576065 -0.0022550598 -0.020012414 -0.04929299 -0.03191576 0.005927205
65 0.010116678 -0.038343538 0.010500193 -0.04016956 -0.024476362 0.01339807 -0.028651422 -0.042013295 0.03406832 0.022514116
66 0.036919158 -0.046604335 -0.044019926 0.017380904 -0.049465038 -0.003734 0.02409843 0.02362701 -0.022176182 0.03679556
67 -0.022058213 -0.03017633 0.049199674 -0.047087707 -0.027542174 0.033140887 -0.015100308 0.017416392 0.01779982 0.031030823
68 0.0391293 0.014246281 0.038566712 0.028914344 -0.021374226 0.009803612 -0.03188299 -0.007879354 0.049305167 -0.008470364
69 -0.043005686 -0.015096925 0.015653614 0.010030143 0.024751645 0.021631148 0.023650404 -0.0451095 0.03782944 0.020318385
70 0.0015060008 0.010091763 0.007829934 -0.017694373 -0.03447025 0.0020509474 0.040186424 -0.0087022185 0.024809983 0.004743416
71 0.012763839 0.028458443 -0.011004873 0.002055265 0.029358763 0.02664889 -0.011574615 0.016117427 0.0020917468 0.022009578
72 -0.011359651 -0.0060616434 -0.022996629 0.04851261 0.049156252 -0.010287624 -0.023381555 -0.03445497 0.0031539425 -0.0010975711
73 0.014873933 -0.019038826 0.04947004 0.019121613 0.02075753 0.03808001 0.029181939 0.018402074 -0.016682327 0.017259602
74 0.030697595 -0.04390369 0.01984493 0.034372184 -0.00087140873 0.018094372 0.02167264 0.030730132 0.043831807 0.040756967
75 -0.016499918 -0.03405974 0.0048771277 0.049424622 0.015265238 -0.03311746 0.017107371 -0.013434619 0.0064707994 -0.010122139
76 -0.03862535 0.008840352 -0.03895557 -0.04653752 -0.043127235 -7.007271e-05 0.03675342 0.030323777 0.012608152 -0.002161406
77 0.04819509 -0.013762604 0.04018924 0.0053959303 -0.039128184 -0.017970413 -0.013644792 -0.036034703 0.039045002 0.03319135
78 -0.027807081 0.022860859 0.014306162 -0.045402337 0.028855976 0.049889248 0.015306186 -0.006249815 -0.0032273047 -0.014328808
79 -0.006187845 -0.021999134 0.049462106 -0.043550413 -0.025433524 -0.048000336 -0.044294097 0.013015982 0.014011983 -0.035733156
80 0.0029543266 -0.046663888 -0.0028290227 0.04119647 -0.036256086 0.02220149 0.031262103 0.0040179864 0.006190378 -0.0091615915
81 0.033418957 -0.036591727 -0.048390288 0.0061518177 0.0062944703 0.01119902 -0.02723968 0.008851003 -0.012906171 -0.010527305
82 -0.017437607 -0.0059584603 -0.025029792 -0.0074007995 0.038296286 0.024133835 -0.015077364 0.043037657 -0.048545104 0.03201199
83 -0.03653584 -0.009138994 -0.03766982 -0.04650067 -0.02478683 0.03266381 -0.002004791 -0.03897546 0.0025896616 -0.047326177
84 0.045312654 -0.010425728 0.046207298 0.027949702 0.010742236 0.030011091 0.00021015853 -0.04672966 -0.04150756 -0.04352778
85 0.03141952 -0.0085480735 0.038738463 0.01376215 0.036189478 -0.010246795 -0.0025496557 -0.037720073 -0.046323206 -0.0021314435
86 -0.044513434 0.022436384 0.010742884 -0.023459082 0.049145732 -0.041142184 -0.035203792 0.044020463 -0.030195361 0.02599189
87 -0.02130701 -0.027977794 0.010056037 -0.0118225105 0.028746057 0.02415086 -0.018920375 0.03665993 -0.026149977 -0.04457752
88 -0.014734626 0.024046157 -0.040980585 -0.00766794 -0.02740313 -0.0007596724 0.0058667734 0.04175235 -0.024933929 0.0116952285
89 -0.0074955747 0.021387476 0.007175762 -0.028505087 -0.03790002 0.03680988 0.015043993 -0.022985077 -0.0033718422 -0.02374996
90 0.03081112 -0.04858128 0.024357144 0.038554374 0.0058588795 0.04083467 -0.041685708 -0.01715871 -0.015730757 -0.010988258
91 -0.026521748 -0.023624092 0.0044946074 -0.03877942 -0.017125536 0.029218886 0.048715252 -0.038779784 -0.031568244 -0.04426661
92 0.040112134 -0.049437184 -0.030396909 0.049361568 0.023560528 0.0052990727 0.019356925 0.023325589 0.0449791 0.04723605
93 0.03274929 -0.0015593059 0.049192604 0.023552325 0.018996518 0.01700661 0.033788797 -0.044847883 0.010782719 -0.046167325
94 -0.044716585 -0.03539724 -0.02722813 -0.020095443 0.041378852 0.024217006 0.007942747 0.0009915307 -0.038499117 -0.040099036
95 0.019639652 -0.008859567 0.017465446 -0.0073698685 0.025948893 -0.002515357 0.022052255 0.028770495 0.020860229 -0.029757703
96 -0.003736157 0.048655394 -0.015908021 -0.041163303 0.043297943 -0.020111615 -0.0048736446 -0.04747634 -0.01574286 0.022885118
97 0.03519315 0.034674857 0.044736374 0.045411024 -0.017756946 -0.024033641 0.034524467 0.02604108 -0.019254113 0.044954743
98 0.025298882 0.017666493 -0.025423033 -0.017686129 -0.012874443 -0.010095786 0.034921814 -0.027804077 0.0060309656 0.022141244
99 0.002389174 0.0017900877 -0.037050545 0.032307144 0.013890471 0.015795756 0.035759833 -0.01976431 0.010225248 -0.024112124
